Language model created by QuickLM on Tue Nov 13 16:46:06 EST 2018
Copyright (c) 1996-2010 Carnegie Mellon University and Alexander I. Rudnicky

The model is in standard ARPA format, designed by Doug Paul while he was at MITRE.

The code that was used to produce this language model is available in Open Source.
Please visit http://www.speech.cs.cmu.edu/tools/ for more information

The (fixed) discount mass is 0.5. The backoffs are computed using the ratio method.
This model based on a corpus of 9 sentences and 13 words

\data\
ngram 1=13
ngram 2=20
ngram 3=11

\1-grams:
-0.8092 </s> -0.3010
-0.8092 <s> -0.2278
-1.7634 CANCEL -0.2278
-1.7634 EMAIL -0.2278
-1.7634 FORWARD -0.2278
-1.7634 HELLO -0.2935
-1.7634 HI -0.2278
-1.7634 LEFT -0.2278
-1.7634 SAY -0.2935
-1.7634 STOP -0.2278
-1.7634 VADER -0.2278
-1.7634 WORLD -0.2278
-1.7634 WRITE -0.2278

\2-grams:
-1.2553 <s> CANCEL 0.0000
-1.2553 <s> EMAIL 0.0000
-1.2553 <s> FORWARD 0.0000
-1.2553 <s> HELLO 0.0000
-1.2553 <s> LEFT 0.0000
-1.2553 <s> SAY 0.0000
-1.2553 <s> STOP 0.0000
-1.2553 <s> VADER 0.0000
-1.2553 <s> WRITE 0.0000
-0.3010 CANCEL </s> -0.3010
-0.3010 EMAIL </s> -0.3010
-0.3010 FORWARD </s> -0.3010
-0.3010 HELLO WORLD 0.0000
-0.3010 HI </s> -0.3010
-0.3010 LEFT </s> -0.3010
-0.3010 SAY HI 0.0000
-0.3010 STOP </s> -0.3010
-0.3010 VADER </s> -0.3010
-0.3010 WORLD </s> -0.3010
-0.3010 WRITE </s> -0.3010

\3-grams:
-0.3010 <s> CANCEL </s>
-0.3010 <s> EMAIL </s>
-0.3010 <s> FORWARD </s>
-0.3010 <s> HELLO WORLD
-0.3010 <s> LEFT </s>
-0.3010 <s> SAY HI
-0.3010 <s> STOP </s>
-0.3010 <s> VADER </s>
-0.3010 <s> WRITE </s>
-0.3010 HELLO WORLD </s>
-0.3010 SAY HI </s>

\end\
